// ******************************************************************
// Neural Network Weights and Biases
// Generated from trained Keras model
// ******************************************************************

#ifndef NN_WEIGHTS_H
#define NN_WEIGHTS_H

#include <stdint.h>
// ARM math types removed for compatibility

// Network Architecture
#define NN_INPUT_SIZE 4
#define NN_INPUT_OUTPUT_SIZE 4
#define NN_HIDDEN1_SIZE 24
#define NN_HIDDEN2_SIZE 12
#define NN_HIDDEN3_SIZE 8
#define NN_OUTPUT_SIZE 2

// dense_input weights (4x4)
static const float INPUT_WEIGHTS[] = {
    -0.37213010f,    -0.17588320f,    0.24166183f,    -0.40726542f,
    -1.53130269f,    -3.49980879f,    -2.11402941f,    -1.62294602f,
    0.09354711f,    0.41931501f,    -0.18935506f,    -0.70129108f,
    3.06398416f,    -1.18702471f,    1.32603168f,    -2.33418489f

};

// dense_input bias (4)
static const float INPUT_BIAS[] = {
    -1.21290636f,    1.25532293f,    19.46480560f,    -4.65034103f

};

// dense_hidden1 weights (4x24)
static const float HIDDEN1_WEIGHTS[] = {
    -1.15855634f,    -1.11011183f,    -0.30882517f,    1.77514005f,
    1.29508042f,    -0.02492617f,    2.12858081f,    -1.06202829f,
    -0.75153267f,    0.25602177f,    0.13985889f,    0.84042311f,
    1.29500473f,    -1.28225982f,    0.19475240f,    0.14931236f,
    0.07337637f,    1.00862157f,    0.49161237f,    1.66263449f,
    -0.46942249f,    1.06139064f,    0.07815548f,    -0.73876065f,
    0.63095677f,    -0.03649669f,    -1.35960639f,    -1.72308588f,
    0.10618657f,    -0.15281841f,    -1.22286177f,    1.45455170f,
    -0.79162025f,    -0.20048879f,    0.12372284f,    -0.10300438f,
    -0.22191685f,    2.12248397f,    1.94368911f,    0.09696729f,
    -0.41221529f,    0.34406191f,    0.46908906f,    -0.96538544f,
    -1.65289962f,    -1.46970654f,    -1.03360200f,    1.13532484f,
    1.54186141f,    -1.08190084f,    1.42666256f,    0.33251730f,
    -1.54040158f,    0.03860926f,    -2.48070002f,    -0.69725609f,
    0.32189867f,    0.72838110f,    0.72977108f,    -1.54278421f,
    0.59025949f,    -1.64151764f,    -1.61374378f,    -0.24092962f,
    -0.60280967f,    -1.39901638f,    -0.91050076f,    -1.07407916f,
    1.33518982f,    -0.66236156f,    -0.44839206f,    0.46150592f,
    -0.79434288f,    -0.07820760f,    1.00100350f,    1.61855698f,
    -0.15738119f,    -0.04019378f,    1.33878207f,    -2.24773598f,
    -1.32699335f,    0.94899487f,    -0.71298361f,    0.31003302f,
    -0.50339925f,    -1.75317955f,    -1.29693866f,    0.02664832f,
    -0.29013845f,    0.27297500f,    1.33577633f,    1.53267384f,
    -0.57639939f,    2.22824955f,    -0.01114565f,    -0.67366475f

};

// dense_hidden1 bias (24)
static const float HIDDEN1_BIAS[] = {
    -43.03388977f,    -13.49792004f,    11.27992344f,    -72.46900177f,
    -0.61699617f,    36.79981995f,    -47.10139084f,    3.48755717f,
    8.90940571f,    -3.28659391f,    -36.56243134f,    5.80231857f,
    19.98069572f,    -50.33697128f,    -18.52606010f,    22.54406357f,
    -45.90304184f,    23.10525894f,    20.16486549f,    -6.12319660f,
    -5.95682716f,    -30.24196815f,    -28.19058228f,    -38.95362854f

};

// dense_hidden2 weights (24x12)
static const float HIDDEN2_WEIGHTS[] = {
    -0.37970743f,    1.11340868f,    0.65387440f,    0.99951029f,
    -0.52290440f,    2.89667654f,    -0.03156176f,    0.10165175f,
    -0.42544603f,    -4.70290565f,    0.96807307f,    -0.37408978f,
    -0.46385682f,    -4.76272678f,    1.44253457f,    1.66704655f,
    -0.28231236f,    -0.79347754f,    0.07848395f,    0.42941475f,
    1.10602438f,    -0.03066668f,    -2.13269448f,    -0.54042083f,
    -0.05621091f,    -1.68605840f,    -0.19772740f,    0.98293990f,
    -0.84623069f,    0.45092410f,    -0.30516031f,    -4.16326237f,
    -2.01193905f,    -0.18666700f,    -0.39291346f,    -2.35147119f,
    0.40223390f,    1.11367989f,    -4.99600315f,    -1.14177358f,
    -2.28221250f,    0.39222091f,    -0.44350821f,    -3.82264495f,
    0.80799103f,    -0.46399823f,    -5.01894951f,    -5.76233292f,
    -1.08966839f,    -1.76486337f,    0.38103348f,    0.32654482f,
    0.01799895f,    -0.02948446f,    0.15850511f,    0.97443938f,
    1.08055353f,    -0.82158762f,    -2.27249551f,    -0.47099972f,
    -0.39087638f,    -0.55351287f,    -0.15229170f,    -0.83192945f,
    0.15863347f,    1.35101748f,    -0.01700955f,    -0.48491541f,
    0.15321079f,    -8.84628868f,    -0.63272196f,    1.00954413f,
    2.21926880f,    -0.16639343f,    -1.16633999f,    -0.07333780f,
    -5.99656868f,    -0.93551832f,    -0.42912352f,    1.84038842f,
    1.17268693f,    -1.88123739f,    1.24356294f,    -1.36884606f,
    -4.37424898f,    -2.07904577f,    -1.32904458f,    0.95913333f,
    0.82392532f,    -4.52068329f,    -0.48917627f,    1.04418683f,
    0.10579104f,    1.08398104f,    -1.11622703f,    0.33116814f,
    0.67748821f,    -0.84272617f,    -0.73343569f,    -0.11158910f,
    0.52225375f,    -3.33004880f,    -0.06550343f,    0.70932651f,
    0.11111560f,    -3.01326990f,    -1.32174587f,    -1.53759515f,
    -0.59710687f,    0.13690400f,    -0.97103304f,    0.41307279f,
    1.07022047f,    0.76580566f,    -0.44833195f,    -0.27832747f,
    -0.05213274f,    0.72455221f,    -1.62831962f,    -3.96162438f,
    0.32100114f,    0.62645996f,    -0.70403033f,    -5.48326302f,
    -0.08903709f,    2.73894143f,    -0.43973735f,    0.04975532f,
    2.97665811f,    -2.60487461f,    0.40401649f,    0.66408646f,
    0.50875103f,    -0.01358979f,    1.47359860f,    0.95891505f,
    -0.04074218f,    1.38429427f,    -0.18677194f,    1.24198842f,
    2.27417850f,    0.78714657f,    0.84811449f,    1.79731274f,
    -1.39567137f,    1.51078153f,    -4.44092655f,    -2.93063211f,
    0.45953584f,    0.11099803f,    -0.02995524f,    1.03973281f,
    -11.40056992f,    1.93267477f,    0.65140367f,    1.58248305f,
    -7.59917116f,    -1.73881686f,    1.61151576f,    -6.80183887f,
    0.36504504f,    -1.74769831f,    -0.27791485f,    -0.97835618f,
    1.37547219f,    -2.28108859f,    0.19764861f,    -0.52891576f,
    1.40146708f,    -6.27843094f,    -0.71853906f,    0.81661248f,
    -1.18971801f,    -7.49731255f,    0.06970012f,    0.18999512f,
    -1.63191235f,    1.14456296f,    0.81546009f,    0.74509001f,
    -1.11956453f,    1.53808880f,    0.41091064f,    -1.27867341f,
    -4.09010267f,    0.06640526f,    0.02210769f,    -2.34411168f,
    -0.06963646f,    0.47946700f,    0.24875827f,    0.27718937f,
    1.58360827f,    -0.00871430f,    -2.78113413f,    0.55290383f,
    0.04001874f,    0.53342068f,    -0.29016161f,    -2.09581614f,
    -0.12206990f,    -1.90047455f,    0.65349430f,    -1.93003249f,
    -2.06952691f,    -0.12258444f,    -0.92607236f,    -2.13718367f,
    -0.18514758f,    0.11520597f,    -0.25727621f,    -0.68805093f,
    -1.13293624f,    1.00104582f,    0.77358645f,    0.86559302f,
    -0.66725779f,    -1.49713278f,    1.08649611f,    0.91657382f,
    -0.46097684f,    0.74352914f,    -0.21543919f,    -7.74097967f,
    -2.77265549f,    1.09859169f,    1.33333361f,    1.20309746f,
    -0.85790759f,    1.04712987f,    4.06681824f,    -0.56723750f,
    0.97549766f,    0.33923897f,    0.03412304f,    3.32378864f,
    -0.44925061f,    0.79645103f,    -5.11112976f,    0.69572079f,
    0.52565604f,    0.61953413f,    -0.21409597f,    -0.32031864f,
    0.50663048f,    -2.05996895f,    -0.41712689f,    -2.32616925f,
    -1.79328525f,    -11.38559818f,    -0.66375774f,    2.04287028f,
    -0.67453182f,    -0.84491289f,    -4.72836256f,    0.92406219f,
    0.96864355f,    -0.10244928f,    -0.20727739f,    -4.51279068f,
    -2.30342078f,    0.49379483f,    -2.22367549f,    -1.82424784f,
    0.40758333f,    0.82216370f,    1.38009834f,    -0.66910338f,
    0.96750152f,    -0.62952578f,    -0.14213386f,    1.53688049f,
    -0.44548938f,    -2.74988198f,    -2.64753866f,    -0.13549984f,
    -4.39166498f,    -0.98193210f,    0.65749025f,    -3.22887778f,
    -1.28989303f,    -4.00294495f,    0.07882230f,    -0.02121166f,
    -4.73200369f,    -2.75658536f,    1.03008306f,    0.35319179f

};

// dense_hidden2 bias (12)
static const float HIDDEN2_BIAS[] = {
    -4.22041559f,    4.51168919f,    8.29993248f,    11.83012581f,
    5.64344072f,    22.65575409f,    -0.14603153f,    22.76398087f,
    -0.96895921f,    6.24957514f,    -6.08019686f,    22.75531960f

};

// dense_hidden3 weights (12x8)
static const float HIDDEN3_WEIGHTS[] = {
    0.19893786f,    0.85070634f,    -1.96024001f,    -0.23203035f,
    0.99324512f,    0.58860344f,    -0.21967034f,    -0.05142141f,
    1.63949752f,    0.00059418f,    0.13172099f,    1.58372259f,
    -1.10731483f,    -3.56585050f,    -0.18061665f,    -6.49760485f,
    -0.91927552f,    -0.26289913f,    -1.45995593f,    -0.95513022f,
    -4.55046701f,    -3.04459834f,    0.99491304f,    1.50660229f,
    0.45490313f,    0.18569700f,    -0.74618065f,    -1.43689752f,
    -0.09247518f,    -1.17674029f,    0.38965473f,    1.08864903f,
    1.79647744f,    1.06173646f,    -5.15660095f,    -0.03150871f,
    -0.78657758f,    -1.62718868f,    -0.17235124f,    0.78821737f,
    -1.84436786f,    -2.11344981f,    0.30423304f,    0.02390806f,
    -0.27123550f,    -2.91622424f,    0.35930690f,    -0.49783212f,
    -0.08812771f,    0.06322835f,    0.12618923f,    -0.00910233f,
    -0.44559813f,    0.50279617f,    0.37836975f,    -0.21966065f,
    0.88585782f,    -2.40468407f,    -2.83010077f,    0.52397579f,
    0.41665372f,    -2.81111383f,    -1.06230426f,    -1.18595862f,
    -1.71697462f,    1.57436597f,    -0.21551411f,    -0.97840410f,
    1.85443020f,    -3.55720568f,    -7.33405972f,    0.13688681f,
    -1.94964302f,    -3.51253271f,    0.41929910f,    0.88235569f,
    -4.63810015f,    -2.17045474f,    1.49104655f,    0.01394688f,
    -1.82957220f,    -1.37227333f,    2.14318824f,    0.52546424f,
    -1.84048748f,    -1.29701519f,    1.86065567f,    -1.70749152f,
    0.01410121f,    -0.99249852f,    -1.11233151f,    0.65207630f,
    -1.46934235f,    -2.90792251f,    -0.56736499f,    -1.26432312f

};

// dense_hidden3 bias (8)
static const float HIDDEN3_BIAS[] = {
    2.63279772f,    -8.17578888f,    -45.32357788f,    -26.79157257f,
    -9.81763554f,    -7.08298397f,    0.46552342f,    -22.63920403f

};

// dense_output weights (8x2)
static const float OUTPUT_WEIGHTS[] = {
    0.55438393f,    0.44252807f,    0.77930599f,    -0.03332675f,
    -1.32902825f,    0.32086116f,    -0.45128578f,    0.64088809f,
    1.05626762f,    0.04413203f,    -2.02861309f,    0.13683882f,
    -0.46898091f,    -0.41323853f,    0.30667570f,    -0.94819248f

};

// dense_output bias (2)
static const float OUTPUT_BIAS[] = {
    -0.79689926f,    -0.97078747f
};

// Neural Network Functions
void nn_forward(const float* input, float* output);
float nn_relu(float x);

#endif // NN_WEIGHTS_H
