// ******************************************************************
// Neural Network Weights and Biases
// Generated from trained Keras model
// ******************************************************************

#ifndef NN_WEIGHTS_H
#define NN_WEIGHTS_H

#include <stdint.h>

// Network Architecture
#define NN_INPUT_SIZE 6
#define NN_INPUT_OUTPUT_SIZE 6
#define NN_HIDDEN1_SIZE 24
#define NN_HIDDEN2_SIZE 12
#define NN_HIDDEN3_SIZE 8
#define NN_OUTPUT_SIZE 3

// dense_input weights (6x6)
static const float INPUT_WEIGHTS[] = {
    -0.46689865f,    0.77148563f,    -0.27638692f,    -0.05060688f,
    -0.10286949f,    -0.39649153f,    -0.00583814f,    0.01810320f,
    0.00547504f,    0.00113586f,    -0.01695935f,    0.00159893f,
    0.62624645f,    7.79964161f,    1.24213982f,    0.08831285f,
    -5.83196783f,    -0.42051217f,    -0.39374316f,    0.07024796f,
    -0.50367701f,    0.02726611f,    -0.13894887f,    0.64109462f,
    -0.03983696f,    0.01119904f,    0.06040240f,    0.02055055f,
    0.01775564f,    0.04279583f,    0.55657715f,    3.33716059f,
    -4.38828135f,    -0.03212994f,    2.87371683f,    6.84744930f

};

// dense_input bias (6)
static const float INPUT_BIAS[] = {
    -1.53848743f,    3.20048928f,    11.32950592f,    -36.47879791f,
    4.21480894f,    2.90759754f
};

// dense_hidden1 weights (6x24)
static const float HIDDEN1_WEIGHTS[] = {
    0.51861548f,    0.08509968f,    0.13505897f,    -0.67550606f,
    -0.14650285f,    0.47199091f,    -2.67820144f,    0.13170615f,
    0.35504949f,    -0.53697038f,    0.13699482f,    0.17742212f,
    0.12986463f,    0.12223488f,    0.13472787f,    1.60713065f,
    -0.42045245f,    0.14709759f,    0.12410476f,    0.10619388f,
    -1.53343058f,    0.12283991f,    0.10989136f,    0.14707886f,
    -0.87579840f,    -0.00738266f,    -0.02362500f,    1.00642025f,
    0.25940117f,    1.47647750f,    -0.32487199f,    -0.03582990f,
    -0.73553121f,    1.11398327f,    -0.02732420f,    -0.00092185f,
    -0.02418663f,    0.33274046f,    -0.23937719f,    0.64260167f,
    -1.31763124f,    -0.02146125f,    -0.02928920f,    -0.01584733f,
    -0.12970048f,    -0.03848264f,    -0.02249627f,    0.00398593f,
    0.55182922f,    -0.13490027f,    -0.20644246f,    1.21772742f,
    -0.56629473f,    -0.09727291f,    -1.38324404f,    -0.21087699f,
    -0.08849915f,    0.13384348f,    -0.22896487f,    -0.24501967f,
    -0.20760931f,    -0.32662967f,    0.52321261f,    0.07566619f,
    0.08611281f,    -0.20552702f,    -0.18594527f,    -0.18644948f,
    -1.22171056f,    -0.28760388f,    -0.16206074f,    -0.18762617f,
    -0.04285709f,    0.50723910f,    0.60977811f,    -0.26484269f,
    -0.05450127f,    0.19198950f,    -1.26912987f,    0.76702046f,
    0.14444463f,    -0.21937446f,    0.72764277f,    0.86360955f,
    0.53777456f,    1.66810799f,    0.05039915f,    -1.01085079f,
    -0.17179842f,    0.75493163f,    0.86873484f,    0.75761855f,
    2.34807158f,    1.18371308f,    0.84365970f,    0.82176679f,
    -1.43277454f,    -0.02634479f,    -0.04993191f,    1.91036916f,
    0.43814391f,    0.01049070f,    -0.67842674f,    -0.03176735f,
    0.89988345f,    -1.36209261f,    -0.05068491f,    -0.02770712f,
    -0.04716466f,    0.29931420f,    -0.40556529f,    1.28379869f,
    -0.00883462f,    -0.04635717f,    -0.01928234f,    -0.03416285f,
    -0.70303804f,    -0.04298201f,    -0.00815875f,    -0.01479518f,
    1.33850324f,    -0.07775497f,    -0.10727982f,    -0.15539756f,
    1.21399367f,    0.53180462f,    -0.42043251f,    -0.11281209f,
    0.28512529f,    -0.43067288f,    -0.12115592f,    -0.12142419f,
    -0.11028205f,    -0.77860415f,    -1.12162364f,    -0.60494214f,
    -0.47389960f,    -0.08180798f,    -0.10351644f,    -0.10543486f,
    0.45579016f,    -0.15926506f,    -0.09605386f,    -0.09161904f

};

// dense_hidden1 bias (24)
static const float HIDDEN1_BIAS[] = {
    71.33190155f,    -3.35330796f,    -53.74864197f,    92.43736267f,
    1.95119405f,    -0.34686363f,    60.44588852f,    -35.35423279f,
    -1.77187085f,    2.00417995f,    -49.58069611f,    -26.90601730f,
    -53.03768921f,    -47.79921722f,    -2.27026391f,    87.18456268f,
    0.11434886f,    -43.95800018f,    -37.12037659f,    -58.34526062f,
    -72.60696411f,    -15.87438297f,    -30.30842590f,    -34.02392960f

};

// dense_hidden2 weights (24x12)
static const float HIDDEN2_WEIGHTS[] = {
    -1.02819836f,    -0.60095632f,    -0.77578688f,    -0.18983844f,
    -1.19196975f,    1.13960958f,    0.93562508f,    -0.28490290f,
    -0.03625662f,    1.27422321f,    1.30307102f,    -1.16333723f,
    -0.25114486f,    -0.06147776f,    -0.22718818f,    -0.48144341f,
    -1.49063909f,    -0.00206836f,    0.00101741f,    -0.70566475f,
    -0.67314100f,    0.00902330f,    0.00369725f,    -3.04961658f,
    -0.59823936f,    -0.03541625f,    0.00511395f,    0.13671882f,
    -0.69636172f,    -0.03249385f,    0.01634851f,    -0.84057623f,
    -0.26171237f,    0.04898188f,    -0.00971539f,    -1.86669207f,
    -0.65076888f,    -0.69344825f,    -0.70005178f,    -0.16591543f,
    -0.41967669f,    0.95126486f,    0.74565083f,    -0.82557684f,
    -0.82587683f,    0.77687240f,    0.90638655f,    -1.80393112f,
    -0.56646699f,    -1.33061314f,    0.81701875f,    -0.11543009f,
    -0.07145123f,    -0.37717590f,    1.22645509f,    -0.54790556f,
    -0.51956654f,    0.40538102f,    -0.78713936f,    -0.35493678f,
    -0.47565246f,    -2.27169275f,    0.44946876f,    -0.02897753f,
    -0.44740346f,    0.04497658f,    -0.28967133f,    -0.25349456f,
    -0.45608652f,    1.80408514f,    -0.16633359f,    -1.18978965f,
    -0.07966837f,    -0.11236589f,    -0.39353958f,    -0.53319877f,
    -0.30012703f,    0.78761381f,    0.72197068f,    -0.04148985f,
    -0.62647694f,    1.48577797f,    1.28415954f,    -2.64576268f,
    -0.54340869f,    -0.02157970f,    0.22512445f,    -0.20858623f,
    -1.13403153f,    -0.04151199f,    -0.09326773f,    -0.89227378f,
    -0.65153390f,    0.05251307f,    -0.04012272f,    -1.53194559f,
    -0.89179790f,    0.09267440f,    0.21113293f,    -0.46338969f,
    -0.32239088f,    -0.77001029f,    0.65652084f,    -0.21595064f,
    -0.65263796f,    -1.00685942f,    0.46364269f,    -0.61301738f,
    -0.02662485f,    -1.39207947f,    0.19639404f,    -0.68709266f,
    0.33241689f,    1.65589833f,    0.25102958f,    -0.29664561f,
    -2.50802612f,    -0.11741231f,    -0.30175939f,    0.41235429f,
    -0.84600013f,    -0.05698547f,    0.03387272f,    0.13159612f,
    0.21763852f,    -0.02937615f,    -0.00507767f,    -0.29481196f,
    -0.27864501f,    0.00752589f,    0.01646558f,    -0.41646701f,
    -0.09509132f,    -0.16652383f,    0.47449216f,    -0.81805563f,
    -1.41246581f,    0.08239651f,    -0.09684681f,    -0.91391730f,
    -3.19731688f,    0.05699284f,    0.01341620f,    -0.90718424f,
    -0.84163970f,    -0.02361459f,    -0.04211134f,    -0.42890006f,
    -1.34537017f,    0.00634477f,    0.00802552f,    -1.26692963f,
    -1.69339514f,    -0.00323633f,    0.01592919f,    -0.12304587f,
    -0.76059103f,    -0.21682018f,    -5.84984398f,    -0.49315551f,
    -1.56758678f,    -0.12222840f,    -0.10257759f,    -0.74842089f,
    -0.84937227f,    -0.15314241f,    -0.15084179f,    0.67956632f,
    -1.04328728f,    -0.14027816f,    0.99490011f,    -0.41081622f,
    -0.35712361f,    0.92553604f,    -1.04463816f,    -0.17890932f,
    -1.40702283f,    -1.00045347f,    0.72244918f,    0.43569657f,
    -0.18484892f,    -0.30034098f,    -0.95659429f,    -0.10081478f,
    -0.18665169f,    0.80506456f,    0.66864032f,    -0.80427033f,
    -1.13864470f,    0.96243280f,    0.96051991f,    -1.17028952f,
    -0.62370598f,    -0.11451896f,    -1.24751687f,    -0.07000705f,
    -0.41822115f,    -0.46249282f,    0.26482689f,    -0.19970003f,
    -0.49346700f,    -0.24101284f,    1.13172722f,    -3.12384152f,
    -0.19636384f,    0.01940616f,    -0.18946020f,    -0.32850125f,
    -0.74923706f,    -0.12538521f,    -0.09712006f,    0.13372444f,
    -0.33978498f,    0.05106805f,    -0.01326325f,    -0.94977182f,
    -0.77518827f,    -0.24763250f,    0.04721355f,    -1.04510605f,
    -0.67549872f,    -0.00434445f,    -0.08371158f,    -0.31799588f,
    -0.82776934f,    0.04874266f,    -0.03213077f,    -0.27480724f,
    -0.42770115f,    0.02907449f,    0.05027755f,    0.19545300f,
    -0.49640733f,    0.00088867f,    -0.00057021f,    -0.15588777f,
    -0.10143998f,    0.00051087f,    0.00845379f,    0.18788557f,
    -0.80898362f,    -0.04194801f,    -2.09033895f,    -0.55536968f,
    -1.55843210f,    -0.87385666f,    -0.66752791f,    -1.45123827f,
    0.26017332f,    -0.57517624f,    -0.74731654f,    -2.64180827f,
    -0.61672568f,    -0.45683315f,    0.69149953f,    0.20547923f,
    -0.36524698f,    -0.10569088f,    -0.07476960f,    -0.44490644f,
    -1.16275239f,    0.04836417f,    -0.04019498f,    -0.06579837f,
    -0.56888568f,    -0.29742584f,    0.07114775f,    -0.98309803f,
    -3.47316337f,    -0.02631715f,    -0.08478303f,    -0.48689577f,
    -0.86038828f,    -0.00374241f,    -0.04111002f,    -0.36299467f,
    -0.40866718f,    0.11717051f,    0.23429537f,    -0.38420352f,
    0.25692639f,    0.05628395f,    -0.08921780f,    -0.84825683f,
    -0.61114287f,    0.04317999f,    0.02086387f,    -1.74786747f

};

// dense_hidden2 bias (12)
static const float HIDDEN2_BIAS[] = {
    -0.68189716f,    -6.21928835f,    18.85743904f,    0.86080498f,
    4.88164043f,    20.48135567f,    10.57022572f,    -0.22253202f,
    -1.21999061f,    12.15954399f,    17.31303978f,    -3.53272557f

};

// dense_hidden3 weights (12x8)
static const float HIDDEN3_WEIGHTS[] = {
    -0.10876920f,    0.26524684f,    0.01259776f,    0.28444082f,
    -0.04675007f,    0.43433505f,    -0.07194021f,    0.07722557f,
    -2.18399024f,    0.27811706f,    0.03296285f,    -0.10437636f,
    0.24572870f,    -0.05971619f,    0.02748053f,    -0.17897382f,
    -0.90779495f,    -1.51417887f,    1.29317415f,    -0.10614778f,
    -0.85947084f,    -0.01424656f,    1.44389915f,    1.34391975f,
    -0.37382463f,    -0.27434829f,    0.14512654f,    -0.07609528f,
    0.02065902f,    -0.40148628f,    -0.50897479f,    -0.52254093f,
    -0.24379908f,    -0.33939511f,    0.75971127f,    -0.04231701f,
    -0.35405624f,    -0.12260437f,    0.65292960f,    0.61197770f,
    -6.78175211f,    -4.78011799f,    -0.36295223f,    -0.05785907f,
    -0.69868517f,    -0.63520938f,    0.54315394f,    0.53141034f,
    0.78110236f,    -4.00818920f,    1.07854211f,    -0.20948516f,
    -0.65672868f,    -0.34428391f,    0.51117063f,    -0.35833451f,
    -0.51674724f,    -0.40240687f,    0.09604704f,    -0.08868442f,
    0.24310829f,    0.38596851f,    -0.23422469f,    0.14735109f,
    -0.15892908f,    0.70975345f,    0.06507616f,    -0.15648554f,
    -0.27896172f,    -0.10883012f,    -0.05122120f,    -0.13832836f,
    -0.95391768f,    -6.91905355f,    0.04907782f,    -0.69954878f,
    -1.07253027f,    -0.62277448f,    0.83181673f,    0.09173338f,
    -3.66590095f,    0.93468863f,    0.46436110f,    -0.58063310f,
    0.73926508f,    -0.51268280f,    -0.57438403f,    0.70828861f,
    -1.24658918f,    1.18886840f,    -2.35699749f,    -0.50792181f,
    0.53235143f,    0.56284159f,    -1.77659690f,    -0.44426289f

};

// dense_hidden3 bias (8)
static const float HIDDEN3_BIAS[] = {
    3.22327137f,    -12.40819931f,    10.38186741f,    -0.36363712f,
    -1.24712706f,    -0.17905380f,    2.90405035f,    11.87858582f

};

// dense_output weights (8x3)
static const float OUTPUT_WEIGHTS[] = {
    -0.00058928f,    0.06885023f,    1.59555101f,    -0.28531021f,
    -1.87359023f,    -0.15788279f,    0.35317326f,    0.51490474f,
    -0.86721539f,    0.10924464f,    0.50858533f,    -0.07233594f,
    -0.39629111f,    0.56712306f,    -0.16432951f,    0.01872333f,
    -0.11466441f,    0.41149732f,    0.51257586f,    -0.72628790f,
    0.21460718f,    -0.89094669f,    0.28485611f,    0.60570371f

};

// dense_output bias (3)
static const float OUTPUT_BIAS[] = {
    4.43755484f,    0.20841631f,    -5.61011171f
};

// Neural Network Functions
void nn_forward(const float* input, float* output);
float nn_relu(float x);

#endif // NN_WEIGHTS_H
